<?xml version="1.0"?>
<opencv_storage>
<cascade>
  <stageType>BOOST</stageType>
  <featureType>HAAR</featureType>
  <height>20</height>
  <width>20</width>
  <stageParams>
    <boostType>GAB</boostType>
    <minHitRate>9.9900001287460327e-01</minHitRate>
    <maxFalseAlarm>5.0000000000000000e-01</maxFalseAlarm>
    <weightTrimRate>9.4999999999999996e-01</weightTrimRate>
    <maxDepth>1</maxDepth>
    <maxWeakCount>100</maxWeakCount></stageParams>
  <featureParams>
    <maxCatCount>0</maxCatCount>
    <featSize>1</featSize>
    <mode>ALL</mode></featureParams>
  <stageNum>15</stageNum>
  <stages>
    <!-- stage 0 -->
    <_>
      <maxWeakCount>3</maxWeakCount>
      <stageThreshold>-1.0412738323211670e+00</stageThreshold>
      <weakClassifiers>
        <_>
          <internalNodes>
            0 -1 21 -1.6767168045043945e-01</internalNodes>
          <leafValues>
            9.7142857313156128e-01 -9.8000001907348633e-01</leafValues></_>
        <_>
          <internalNodes>
            0 -1 30 -9.6112750470638275e-02</internalNodes>
          <leafValues>
            9.7259277105331421e-01 -9.1399556398391724e-01</leafValues></_>
        <_>
          <internalNodes>
            0 -1 60 -8.4018036723136902e-02</internalNodes>
          <leafValues>
            8.5272175073623657e-01 -9.8787385225296021e-01</leafValues></_></weakClassifiers></_>
    <!-- stage 1 -->
    <_>
      <maxWeakCount>3</maxWeakCount>
      <stageThreshold>-7.8380513191223145e-01</stageThreshold>
      <weakClassifiers>
        <_>
          <internalNodes>
            0 -1 28 -2.2147184610366821e-01</internalNodes>
          <leafValues>
            1. -8.9274448156356812e-01</leafValues></_>
        <_>
          <internalNodes>
            0 -1 17 -1.9049179553985596e-01</internalNodes>
          <leafValues>
            9.6486413478851318e-01 -7.0582574605941772e-01</leafValues></_>
        <_>
          <internalNodes>
            0 -1 50 -1.5118217468261719e-01</internalNodes>
          <leafValues>
            8.1476503610610962e-01 -7.5628012418746948e-01</leafValues></_></weakClassifiers></_>
    <!-- stage 2 -->
    <_>
      <maxWeakCount>3</maxWeakCount>
      <stageThreshold>-7.5542366504669189e-01</stageThreshold>
      <weakClassifiers>
        <_>
          <internalNodes>
            0 -1 24 -2.1334029734134674e-01</internalNodes>
          <leafValues>
            9.6808511018753052e-01 -8.4472048282623291e-01</leafValues></_>
        <_>
          <internalNodes>
            0 -1 11 -4.2816177010536194e-02</internalNodes>
          <leafValues>
            9.2986714839935303e-01 -5.9189462661743164e-01</leafValues></_>
        <_>
          <internalNodes>
            0 -1 25 6.9908410310745239e-02</internalNodes>
          <leafValues>
            -8.3018404245376587e-01 6.8119144439697266e-01</leafValues></_></weakClassifiers></_>
    <!-- stage 3 -->
    <_>
      <maxWeakCount>4</maxWeakCount>
      <stageThreshold>-1.6134533882141113e+00</stageThreshold>
      <weakClassifiers>
        <_>
          <internalNodes>
            0 -1 23 -2.7652519941329956e-01</internalNodes>
          <leafValues>
            9.2553192377090454e-01 -8.1987577676773071e-01</leafValues></_>
        <_>
          <internalNodes>
            0 -1 38 1.6836009919643402e-02</internalNodes>
          <leafValues>
            -6.4686465263366699e-01 6.8058884143829346e-01</leafValues></_>
        <_>
          <internalNodes>
            0 -1 65 1.5032688155770302e-02</internalNodes>
          <leafValues>
            -9.5114457607269287e-01 3.9981740713119507e-01</leafValues></_>
        <_>
          <internalNodes>
            0 -1 15 -1.0774338617920876e-02</internalNodes>
          <leafValues>
            7.6172208786010742e-01 -5.4653036594390869e-01</leafValues></_></weakClassifiers></_>
    <!-- stage 4 -->
    <_>
      <maxWeakCount>5</maxWeakCount>
      <stageThreshold>-1.9429081678390503e+00</stageThreshold>
      <weakClassifiers>
        <_>
          <internalNodes>
            0 -1 23 -3.0942755937576294e-01</internalNodes>
          <leafValues>
            9.1764706373214722e-01 -7.2352939844131470e-01</leafValues></_>
        <_>
          <internalNodes>
            0 -1 34 1.6078274697065353e-02</internalNodes>
          <leafValues>
            -6.1372363567352295e-01 6.6970121860504150e-01</leafValues></_>
        <_>
          <internalNodes>
            0 -1 10 -3.2086996361613274e-03</internalNodes>
          <leafValues>
            4.0028628706932068e-01 -8.9987677335739136e-01</leafValues></_>
        <_>
          <internalNodes>
            0 -1 4 -1.8238961696624756e-02</internalNodes>
          <leafValues>
            8.2816219329833984e-01 -3.9232590794563293e-01</leafValues></_>
        <_>
          <internalNodes>
            0 -1 44 8.4693431854248047e-03</internalNodes>
          <leafValues>
            -6.1361557245254517e-01 5.2330553531646729e-01</leafValues></_></weakClassifiers></_>
    <!-- stage 5 -->
    <_>
      <maxWeakCount>6</maxWeakCount>
      <stageThreshold>-1.4335074424743652e+00</stageThreshold>
      <weakClassifiers>
        <_>
          <internalNodes>
            0 -1 23 -3.0638974905014038e-01</internalNodes>
          <leafValues>
            8.6363637447357178e-01 -7.2455090284347534e-01</leafValues></_>
        <_>
          <internalNodes>
            0 -1 38 2.3750608786940575e-02</internalNodes>
          <leafValues>
            -5.2033787965774536e-01 7.5857913494110107e-01</leafValues></_>
        <_>
          <internalNodes>
            0 -1 18 -2.8601147234439850e-02</internalNodes>
          <leafValues>
            6.5539604425430298e-01 -4.7247838973999023e-01</leafValues></_>
        <_>
          <internalNodes>
            0 -1 5 3.4786380827426910e-02</internalNodes>
          <leafValues>
            3.4094479680061340e-01 -9.9588996171951294e-01</leafValues></_>
        <_>
          <internalNodes>
            0 -1 46 3.9126493036746979e-02</internalNodes>
          <leafValues>
            -4.3400660157203674e-01 6.9612532854080200e-01</leafValues></_>
        <_>
          <internalNodes>
            0 -1 56 -1.6364935040473938e-01</internalNodes>
          <leafValues>
            4.9272280931472778e-01 -7.5095283985137939e-01</leafValues></_></weakClassifiers></_>
    <!-- stage 6 -->
    <_>
      <maxWeakCount>5</maxWeakCount>
      <stageThreshold>-1.4094495773315430e+00</stageThreshold>
      <weakClassifiers>
        <_>
          <internalNodes>
            0 -1 52 8.2400158047676086e-02</internalNodes>
          <leafValues>
            -8.7644785642623901e-01 5.4581671953201294e-01</leafValues></_>
        <_>
          <internalNodes>
            0 -1 9 -7.3285251855850220e-02</internalNodes>
          <leafValues>
            5.5203598737716675e-01 -6.3163548707962036e-01</leafValues></_>
        <_>
          <internalNodes>
            0 -1 32 -1.6905049979686737e-01</internalNodes>
          <leafValues>
            6.0403275489807129e-01 -5.5563700199127197e-01</leafValues></_>
        <_>
          <internalNodes>
            0 -1 8 -1.5385457663796842e-04</internalNodes>
          <leafValues>
            3.3361858129501343e-01 -9.2014062404632568e-01</leafValues></_>
        <_>
          <internalNodes>
            0 -1 1 -3.3335792249999940e-04</internalNodes>
          <leafValues>
            -8.3245170116424561e-01 3.2065227627754211e-01</leafValues></_></weakClassifiers></_>
    <!-- stage 7 -->
    <_>
      <maxWeakCount>6</maxWeakCount>
      <stageThreshold>-1.4602041244506836e+00</stageThreshold>
      <weakClassifiers>
        <_>
          <internalNodes>
            0 -1 23 -3.2439947128295898e-01</internalNodes>
          <leafValues>
            7.6744186878204346e-01 -6.5680474042892456e-01</leafValues></_>
        <_>
          <internalNodes>
            0 -1 34 1.6744084656238556e-02</internalNodes>
          <leafValues>
            -6.1904150247573853e-01 5.3104567527770996e-01</leafValues></_>
        <_>
          <internalNodes>
            0 -1 13 -5.6170530617237091e-02</internalNodes>
          <leafValues>
            7.1352738142013550e-01 -4.5232072472572327e-01</leafValues></_>
        <_>
          <internalNodes>
            0 -1 66 1.9414480775594711e-02</internalNodes>
          <leafValues>
            3.2925242185592651e-01 -8.4775507450103760e-01</leafValues></_>
        <_>
          <internalNodes>
            0 -1 48 -2.1387258172035217e-01</internalNodes>
          <leafValues>
            4.2237114906311035e-01 -7.1081769466400146e-01</leafValues></_>
        <_>
          <internalNodes>
            0 -1 37 1.8960639834403992e-02</internalNodes>
          <leafValues>
            -4.7250136733055115e-01 7.5463664531707764e-01</leafValues></_></weakClassifiers></_>
    <!-- stage 8 -->
    <_>
      <maxWeakCount>6</maxWeakCount>
      <stageThreshold>-8.0104845762252808e-01</stageThreshold>
      <weakClassifiers>
        <_>
          <internalNodes>
            0 -1 40 -2.6317592710256577e-02</internalNodes>
          <leafValues>
            5.0420171022415161e-01 -7.7205884456634521e-01</leafValues></_>
        <_>
          <internalNodes>
            0 -1 27 -3.4537172317504883e-01</internalNodes>
          <leafValues>
            6.1091256141662598e-01 -5.3673893213272095e-01</leafValues></_>
        <_>
          <internalNodes>
            0 -1 64 -1.1812360957264900e-02</internalNodes>
          <leafValues>
            3.4038251638412476e-01 -8.4443622827529907e-01</leafValues></_>
        <_>
          <internalNodes>
            0 -1 44 1.0373341850936413e-02</internalNodes>
          <leafValues>
            -6.6419363021850586e-01 4.2165026068687439e-01</leafValues></_>
        <_>
          <internalNodes>
            0 -1 3 2.8060504700988531e-04</internalNodes>
          <leafValues>
            2.8271129727363586e-01 -8.7719404697418213e-01</leafValues></_>
        <_>
          <internalNodes>
            0 -1 62 -5.2735526114702225e-03</internalNodes>
          <leafValues>
            6.4782398939132690e-01 -4.4954746961593628e-01</leafValues></_></weakClassifiers></_>
    <!-- stage 9 -->
    <_>
      <maxWeakCount>6</maxWeakCount>
      <stageThreshold>-1.0693334341049194e+00</stageThreshold>
      <weakClassifiers>
        <_>
          <internalNodes>
            0 -1 19 -3.1622001528739929e-01</internalNodes>
          <leafValues>
            7.7777779102325439e-01 -5.8543419837951660e-01</leafValues></_>
        <_>
          <internalNodes>
            0 -1 0 -5.4650595411658287e-03</internalNodes>
          <leafValues>
            -7.6053524017333984e-01 4.2512458562850952e-01</leafValues></_>
        <_>
          <internalNodes>
            0 -1 14 -4.9377992749214172e-02</internalNodes>
          <leafValues>
            2.6283419132232666e-01 -9.7746622562408447e-01</leafValues></_>
        <_>
          <internalNodes>
            0 -1 54 -5.0609312951564789e-02</internalNodes>
          <leafValues>
            3.6488586664199829e-01 -7.6474750041961670e-01</leafValues></_>
        <_>
          <internalNodes>
            0 -1 58 9.5321014523506165e-03</internalNodes>
          <leafValues>
            -5.9568524360656738e-01 5.0451219081878662e-01</leafValues></_>
        <_>
          <internalNodes>
            0 -1 42 1.8918683053925633e-03</internalNodes>
          <leafValues>
            2.7403709292411804e-01 -8.9244627952575684e-01</leafValues></_></weakClassifiers></_>
    <!-- stage 10 -->
    <_>
      <maxWeakCount>5</maxWeakCount>
      <stageThreshold>-1.1744959354400635e+00</stageThreshold>
      <weakClassifiers>
        <_>
          <internalNodes>
            0 -1 41 -2.0370917022228241e-01</internalNodes>
          <leafValues>
            4.9321267008781433e-01 -6.8858128786087036e-01</leafValues></_>
        <_>
          <internalNodes>
            0 -1 12 -7.4354216456413269e-02</internalNodes>
          <leafValues>
            7.4709689617156982e-01 -3.9981856942176819e-01</leafValues></_>
        <_>
          <internalNodes>
            0 -1 55 9.3985851854085922e-03</internalNodes>
          <leafValues>
            -6.0597723722457886e-01 4.4632714986801147e-01</leafValues></_>
        <_>
          <internalNodes>
            0 -1 61 2.2004840895533562e-02</internalNodes>
          <leafValues>
            -8.4496659040451050e-01 3.8138642907142639e-01</leafValues></_>
        <_>
          <internalNodes>
            0 -1 39 -2.6315641589462757e-03</internalNodes>
          <leafValues>
            -9.1380959749221802e-01 2.7674657106399536e-01</leafValues></_></weakClassifiers></_>
    <!-- stage 11 -->
    <_>
      <maxWeakCount>6</maxWeakCount>
      <stageThreshold>-1.4395644664764404e+00</stageThreshold>
      <weakClassifiers>
        <_>
          <internalNodes>
            0 -1 53 8.2825824618339539e-02</internalNodes>
          <leafValues>
            -8.5123968124389648e-01 4.3283581733703613e-01</leafValues></_>
        <_>
          <internalNodes>
            0 -1 35 3.6316730082035065e-02</internalNodes>
          <leafValues>
            -6.0678559541702271e-01 5.0559026002883911e-01</leafValues></_>
        <_>
          <internalNodes>
            0 -1 26 -2.3146413266658783e-02</internalNodes>
          <leafValues>
            7.0731967687606812e-01 -4.2106196284294128e-01</leafValues></_>
        <_>
          <internalNodes>
            0 -1 45 5.3102757781744003e-02</internalNodes>
          <leafValues>
            -4.6796232461929321e-01 5.5779129266738892e-01</leafValues></_>
        <_>
          <internalNodes>
            0 -1 22 -4.7671817243099213e-02</internalNodes>
          <leafValues>
            5.0450861454010010e-01 -4.9841672182083130e-01</leafValues></_>
        <_>
          <internalNodes>
            0 -1 63 6.3753977883607149e-05</internalNodes>
          <leafValues>
            2.9352596402168274e-01 -9.2022287845611572e-01</leafValues></_></weakClassifiers></_>
    <!-- stage 12 -->
    <_>
      <maxWeakCount>5</maxWeakCount>
      <stageThreshold>-1.0093631744384766e+00</stageThreshold>
      <weakClassifiers>
        <_>
          <internalNodes>
            0 -1 16 -4.1575318574905396e-01</internalNodes>
          <leafValues>
            6.2068963050842285e-01 -5.8928573131561279e-01</leafValues></_>
        <_>
          <internalNodes>
            0 -1 43 1.8838252872228622e-03</internalNodes>
          <leafValues>
            3.8880142569541931e-01 -8.0400419235229492e-01</leafValues></_>
        <_>
          <internalNodes>
            0 -1 51 -9.8114490509033203e-02</internalNodes>
          <leafValues>
            3.7658578157424927e-01 -6.8609535694122314e-01</leafValues></_>
        <_>
          <internalNodes>
            0 -1 47 1.0633735917508602e-02</internalNodes>
          <leafValues>
            -3.4630405902862549e-01 7.8268259763717651e-01</leafValues></_>
        <_>
          <internalNodes>
            0 -1 6 -9.9272569641470909e-03</internalNodes>
          <leafValues>
            -8.8371348381042480e-01 3.5364508628845215e-01</leafValues></_></weakClassifiers></_>
    <!-- stage 13 -->
    <_>
      <maxWeakCount>5</maxWeakCount>
      <stageThreshold>-1.6225678920745850e+00</stageThreshold>
      <weakClassifiers>
        <_>
          <internalNodes>
            0 -1 20 -3.3786851912736893e-02</internalNodes>
          <leafValues>
            3.9199998974800110e-01 -7.2307693958282471e-01</leafValues></_>
        <_>
          <internalNodes>
            0 -1 57 -1.2285893317312002e-03</internalNodes>
          <leafValues>
            -8.1801497936248779e-01 3.5314708948135376e-01</leafValues></_>
        <_>
          <internalNodes>
            0 -1 59 -7.4092368595302105e-03</internalNodes>
          <leafValues>
            3.0352032184600830e-01 -7.9602873325347900e-01</leafValues></_>
        <_>
          <internalNodes>
            0 -1 31 1.7670586239546537e-03</internalNodes>
          <leafValues>
            -8.0897378921508789e-01 3.7491399049758911e-01</leafValues></_>
        <_>
          <internalNodes>
            0 -1 2 4.7745164483785629e-03</internalNodes>
          <leafValues>
            3.3963876962661743e-01 -9.3485438823699951e-01</leafValues></_></weakClassifiers></_>
    <!-- stage 14 -->
    <_>
      <maxWeakCount>6</maxWeakCount>
      <stageThreshold>-1.2086212635040283e+00</stageThreshold>
      <weakClassifiers>
        <_>
          <internalNodes>
            0 -1 36 -8.7487790733575821e-03</internalNodes>
          <leafValues>
            5.0943398475646973e-01 -6.6442954540252686e-01</leafValues></_>
        <_>
          <internalNodes>
            0 -1 33 -3.0572909861803055e-02</internalNodes>
          <leafValues>
            5.0376254320144653e-01 -5.4869693517684937e-01</leafValues></_>
        <_>
          <internalNodes>
            0 -1 67 -8.4519135998561978e-04</internalNodes>
          <leafValues>
            2.7284178137779236e-01 -9.5468521118164062e-01</leafValues></_>
        <_>
          <internalNodes>
            0 -1 49 9.8718516528606415e-03</internalNodes>
          <leafValues>
            -7.8853166103363037e-01 3.5784515738487244e-01</leafValues></_>
        <_>
          <internalNodes>
            0 -1 7 4.6740943798795342e-04</internalNodes>
          <leafValues>
            2.8396743535995483e-01 -9.5509320497512817e-01</leafValues></_>
        <_>
          <internalNodes>
            0 -1 29 -3.1763864681124687e-03</internalNodes>
          <leafValues>
            -8.9935499429702759e-01 2.3622769117355347e-01</leafValues></_></weakClassifiers></_></stages>
  <features>
    <_>
      <rects>
        <_>
          0 0 1 18 -1.</_>
        <_>
          0 6 1 6 3.</_></rects>
      <tilted>0</tilted></_>
    <_>
      <rects>
        <_>
          0 0 4 1 -1.</_>
        <_>
          2 0 2 1 2.</_></rects>
      <tilted>0</tilted></_>
    <_>
      <rects>
        <_>
          0 0 16 1 -1.</_>
        <_>
          8 0 8 1 2.</_></rects>
      <tilted>0</tilted></_>
    <_>
      <rects>
        <_>
          0 1 1 10 -1.</_>
        <_>
          0 6 1 5 2.</_></rects>
      <tilted>0</tilted></_>
    <_>
      <rects>
        <_>
          0 1 15 3 -1.</_>
        <_>
          0 2 15 1 3.</_></rects>
      <tilted>0</tilted></_>
    <_>
      <rects>
        <_>
          0 2 19 16 -1.</_>
        <_>
          0 10 19 8 2.</_></rects>
      <tilted>0</tilted></_>
    <_>
      <rects>
        <_>
          0 3 1 14 -1.</_>
        <_>
          0 10 1 7 2.</_></rects>
      <tilted>0</tilted></_>
    <_>
      <rects>
        <_>
          0 5 14 2 -1.</_>
        <_>
          0 6 14 1 2.</_></rects>
      <tilted>0</tilted></_>
    <_>
      <rects>
        <_>
          0 14 1 6 -1.</_>
        <_>
          0 17 1 3 2.</_></rects>
      <tilted>0</tilted></_>
    <_>
      <rects>
        <_>
          1 0 16 9 -1.</_>
        <_>
          1 3 16 3 3.</_></rects>
      <tilted>0</tilted></_>
    <_>
      <rects>
        <_>
          1 16 8 4 -1.</_>
        <_>
          1 18 8 2 2.</_></rects>
      <tilted>0</tilted></_>
    <_>
      <rects>
        <_>
          2 0 10 4 -1.</_>
        <_>
          2 2 10 2 2.</_></rects>
      <tilted>0</tilted></_>
    <_>
      <rects>
        <_>
          2 0 12 4 -1.</_>
        <_>
          2 2 12 2 2.</_></rects>
      <tilted>0</tilted></_>
    <_>
      <rects>
        <_>
          2 0 14 8 -1.</_>
        <_>
          2 2 14 4 2.</_></rects>
      <tilted>0</tilted></_>
    <_>
      <rects>
        <_>
          2 0 17 20 -1.</_>
        <_>
          2 10 17 10 2.</_></rects>
      <tilted>0</tilted></_>
    <_>
      <rects>
        <_>
          2 1 13 4 -1.</_>
        <_>
          2 2 13 2 2.</_></rects>
      <tilted>0</tilted></_>
    <_>
      <rects>
        <_>
          2 4 18 12 -1.</_>
        <_>
          2 4 9 6 2.</_>
        <_>
          11 10 9 6 2.</_></rects>
      <tilted>0</tilted></_>
    <_>
      <rects>
        <_>
          2 5 14 10 -1.</_>
        <_>
          2 5 7 5 2.</_>
        <_>
          9 10 7 5 2.</_></rects>
      <tilted>0</tilted></_>
    <_>
      <rects>
        <_>
          3 0 9 6 -1.</_>
        <_>
          3 2 9 2 3.</_></rects>
      <tilted>0</tilted></_>
    <_>
      <rects>
        <_>
          3 5 14 10 -1.</_>
        <_>
          3 5 7 5 2.</_>
        <_>
          10 10 7 5 2.</_></rects>
      <tilted>0</tilted></_>
    <_>
      <rects>
        <_>
          3 5 12 2 -1.</_>
        <_>
          3 5 12 1 2.</_></rects>
      <tilted>1</tilted></_>
    <_>
      <rects>
        <_>
          4 2 12 16 -1.</_>
        <_>
          4 2 6 8 2.</_>
        <_>
          10 10 6 8 2.</_></rects>
      <tilted>0</tilted></_>
    <_>
      <rects>
        <_>
          4 3 6 4 -1.</_>
        <_>
          6 5 2 4 3.</_></rects>
      <tilted>1</tilted></_>
    <_>
      <rects>
        <_>
          4 4 12 12 -1.</_>
        <_>
          4 4 6 6 2.</_>
        <_>
          10 10 6 6 2.</_></rects>
      <tilted>0</tilted></_>
    <_>
      <rects>
        <_>
          4 5 12 10 -1.</_>
        <_>
          4 5 6 5 2.</_>
        <_>
          10 10 6 5 2.</_></rects>
      <tilted>0</tilted></_>
    <_>
      <rects>
        <_>
          4 8 6 12 -1.</_>
        <_>
          6 12 2 4 9.</_></rects>
      <tilted>0</tilted></_>
    <_>
      <rects>
        <_>
          5 0 3 6 -1.</_>
        <_>
          5 2 3 2 3.</_></rects>
      <tilted>0</tilted></_>
    <_>
      <rects>
        <_>
          5 3 12 14 -1.</_>
        <_>
          5 3 6 7 2.</_>
        <_>
          11 10 6 7 2.</_></rects>
      <tilted>0</tilted></_>
    <_>
      <rects>
        <_>
          5 4 12 12 -1.</_>
        <_>
          5 4 6 6 2.</_>
        <_>
          11 10 6 6 2.</_></rects>
      <tilted>0</tilted></_>
    <_>
      <rects>
        <_>
          5 5 11 2 -1.</_>
        <_>
          5 6 11 1 2.</_></rects>
      <tilted>0</tilted></_>
    <_>
      <rects>
        <_>
          5 6 12 8 -1.</_>
        <_>
          5 6 6 4 2.</_>
        <_>
          11 10 6 4 2.</_></rects>
      <tilted>0</tilted></_>
    <_>
      <rects>
        <_>
          5 12 6 2 -1.</_>
        <_>
          7 14 2 2 3.</_></rects>
      <tilted>1</tilted></_>
    <_>
      <rects>
        <_>
          6 6 10 10 -1.</_>
        <_>
          6 6 5 5 2.</_>
        <_>
          11 11 5 5 2.</_></rects>
      <tilted>0</tilted></_>
    <_>
      <rects>
        <_>
          6 7 10 2 -1.</_>
        <_>
          6 7 10 1 2.</_></rects>
      <tilted>1</tilted></_>
    <_>
      <rects>
        <_>
          7 1 2 7 -1.</_>
        <_>
          7 1 1 7 2.</_></rects>
      <tilted>1</tilted></_>
    <_>
      <rects>
        <_>
          7 1 10 2 -1.</_>
        <_>
          7 1 10 1 2.</_></rects>
      <tilted>1</tilted></_>
    <_>
      <rects>
        <_>
          7 7 2 4 -1.</_>
        <_>
          7 7 1 4 2.</_></rects>
      <tilted>1</tilted></_>
    <_>
      <rects>
        <_>
          7 16 13 4 -1.</_>
        <_>
          7 17 13 2 2.</_></rects>
      <tilted>0</tilted></_>
    <_>
      <rects>
        <_>
          8 0 2 8 -1.</_>
        <_>
          8 0 1 8 2.</_></rects>
      <tilted>1</tilted></_>
    <_>
      <rects>
        <_>
          8 4 5 2 -1.</_>
        <_>
          8 5 5 1 2.</_></rects>
      <tilted>0</tilted></_>
    <_>
      <rects>
        <_>
          9 0 4 7 -1.</_>
        <_>
          10 1 2 7 2.</_></rects>
      <tilted>1</tilted></_>
    <_>
      <rects>
        <_>
          9 0 9 8 -1.</_>
        <_>
          7 2 9 4 2.</_></rects>
      <tilted>1</tilted></_>
    <_>
      <rects>
        <_>
          10 0 10 2 -1.</_>
        <_>
          15 0 5 2 2.</_></rects>
      <tilted>0</tilted></_>
    <_>
      <rects>
        <_>
          10 3 10 4 -1.</_>
        <_>
          10 3 5 2 2.</_>
        <_>
          15 5 5 2 2.</_></rects>
      <tilted>0</tilted></_>
    <_>
      <rects>
        <_>
          10 5 4 4 -1.</_>
        <_>
          11 6 2 4 2.</_></rects>
      <tilted>1</tilted></_>
    <_>
      <rects>
        <_>
          10 7 6 7 -1.</_>
        <_>
          12 9 2 7 3.</_></rects>
      <tilted>1</tilted></_>
    <_>
      <rects>
        <_>
          10 8 6 5 -1.</_>
        <_>
          12 10 2 5 3.</_></rects>
      <tilted>1</tilted></_>
    <_>
      <rects>
        <_>
          10 16 6 4 -1.</_>
        <_>
          10 17 6 2 2.</_></rects>
      <tilted>0</tilted></_>
    <_>
      <rects>
        <_>
          11 2 9 18 -1.</_>
        <_>
          11 11 9 9 2.</_></rects>
      <tilted>0</tilted></_>
    <_>
      <rects>
        <_>
          11 6 4 6 -1.</_>
        <_>
          12 7 2 6 2.</_></rects>
      <tilted>1</tilted></_>
    <_>
      <rects>
        <_>
          11 7 6 12 -1.</_>
        <_>
          13 11 2 4 9.</_></rects>
      <tilted>0</tilted></_>
    <_>
      <rects>
        <_>
          12 0 2 20 -1.</_>
        <_>
          12 10 2 10 2.</_></rects>
      <tilted>0</tilted></_>
    <_>
      <rects>
        <_>
          12 2 6 8 -1.</_>
        <_>
          14 4 2 8 3.</_></rects>
      <tilted>1</tilted></_>
    <_>
      <rects>
        <_>
          12 4 6 10 -1.</_>
        <_>
          14 6 2 10 3.</_></rects>
      <tilted>1</tilted></_>
    <_>
      <rects>
        <_>
          12 6 5 6 -1.</_>
        <_>
          10 8 5 2 3.</_></rects>
      <tilted>1</tilted></_>
    <_>
      <rects>
        <_>
          12 7 4 7 -1.</_>
        <_>
          13 8 2 7 2.</_></rects>
      <tilted>1</tilted></_>
    <_>
      <rects>
        <_>
          13 1 6 12 -1.</_>
        <_>
          10 4 6 6 2.</_></rects>
      <tilted>1</tilted></_>
    <_>
      <rects>
        <_>
          13 12 5 2 -1.</_>
        <_>
          13 13 5 1 2.</_></rects>
      <tilted>0</tilted></_>
    <_>
      <rects>
        <_>
          14 5 4 4 -1.</_>
        <_>
          15 6 2 4 2.</_></rects>
      <tilted>1</tilted></_>
    <_>
      <rects>
        <_>
          14 10 6 4 -1.</_>
        <_>
          13 11 6 2 2.</_></rects>
      <tilted>1</tilted></_>
    <_>
      <rects>
        <_>
          15 2 5 12 -1.</_>
        <_>
          12 5 5 6 2.</_></rects>
      <tilted>1</tilted></_>
    <_>
      <rects>
        <_>
          15 5 2 6 -1.</_>
        <_>
          15 5 2 3 2.</_></rects>
      <tilted>1</tilted></_>
    <_>
      <rects>
        <_>
          15 9 4 7 -1.</_>
        <_>
          16 9 2 7 2.</_></rects>
      <tilted>0</tilted></_>
    <_>
      <rects>
        <_>
          16 0 4 1 -1.</_>
        <_>
          18 0 2 1 2.</_></rects>
      <tilted>0</tilted></_>
    <_>
      <rects>
        <_>
          16 3 1 12 -1.</_>
        <_>
          13 6 1 6 2.</_></rects>
      <tilted>1</tilted></_>
    <_>
      <rects>
        <_>
          16 4 2 6 -1.</_>
        <_>
          16 4 2 3 2.</_></rects>
      <tilted>1</tilted></_>
    <_>
      <rects>
        <_>
          17 1 3 16 -1.</_>
        <_>
          17 5 3 8 2.</_></rects>
      <tilted>0</tilted></_>
    <_>
      <rects>
        <_>
          18 1 2 12 -1.</_>
        <_>
          18 7 2 6 2.</_></rects>
      <tilted>0</tilted></_></features></cascade>
</opencv_storage>
