<?xml version="1.0"?>
<opencv_storage>
<cascade>
  <stageType>BOOST</stageType>
  <featureType>HAAR</featureType>
  <height>20</height>
  <width>20</width>
  <stageParams>
    <boostType>GAB</boostType>
    <minHitRate>9.9900001287460327e-01</minHitRate>
    <maxFalseAlarm>5.0000000000000000e-01</maxFalseAlarm>
    <weightTrimRate>9.4999999999999996e-01</weightTrimRate>
    <maxDepth>1</maxDepth>
    <maxWeakCount>100</maxWeakCount></stageParams>
  <featureParams>
    <maxCatCount>0</maxCatCount>
    <featSize>1</featSize>
    <mode>ALL</mode></featureParams>
  <stageNum>16</stageNum>
  <stages>
    <!-- stage 0 -->
    <_>
      <maxWeakCount>2</maxWeakCount>
      <stageThreshold>-4.2123511433601379e-02</stageThreshold>
      <weakClassifiers>
        <_>
          <internalNodes>
            0 -1 10 -1.4544419944286346e-01</internalNodes>
          <leafValues>
            9.4974875450134277e-01 -9.6013289690017700e-01</leafValues></_>
        <_>
          <internalNodes>
            0 -1 19 -4.1657710075378418e-01</internalNodes>
          <leafValues>
            9.1800940036773682e-01 -9.8115980625152588e-01</leafValues></_></weakClassifiers></_>
    <!-- stage 1 -->
    <_>
      <maxWeakCount>3</maxWeakCount>
      <stageThreshold>-9.9940615892410278e-01</stageThreshold>
      <weakClassifiers>
        <_>
          <internalNodes>
            0 -1 32 7.4809649959206581e-03</internalNodes>
          <leafValues>
            -9.6428573131561279e-01 7.7272725105285645e-01</leafValues></_>
        <_>
          <internalNodes>
            0 -1 18 -8.3758391439914703e-02</internalNodes>
          <leafValues>
            7.9825806617736816e-01 -8.4518069028854370e-01</leafValues></_>
        <_>
          <internalNodes>
            0 -1 16 5.2102678455412388e-03</internalNodes>
          <leafValues>
            -8.2019627094268799e-01 8.1006026268005371e-01</leafValues></_></weakClassifiers></_>
    <!-- stage 2 -->
    <_>
      <maxWeakCount>3</maxWeakCount>
      <stageThreshold>-1.1436511278152466e+00</stageThreshold>
      <weakClassifiers>
        <_>
          <internalNodes>
            0 -1 0 -7.0879206061363220e-02</internalNodes>
          <leafValues>
            7.3584908246994019e-01 -8.8888889551162720e-01</leafValues></_>
        <_>
          <internalNodes>
            0 -1 52 -1.9008768722414970e-03</internalNodes>
          <leafValues>
            6.4607387781143188e-01 -8.2530993223190308e-01</leafValues></_>
        <_>
          <internalNodes>
            0 -1 61 -9.5505073666572571e-02</internalNodes>
          <leafValues>
            5.8615201711654663e-01 -9.0083616971969604e-01</leafValues></_></weakClassifiers></_>
    <!-- stage 3 -->
    <_>
      <maxWeakCount>3</maxWeakCount>
      <stageThreshold>-1.1518994569778442e+00</stageThreshold>
      <weakClassifiers>
        <_>
          <internalNodes>
            0 -1 46 2.9900804162025452e-02</internalNodes>
          <leafValues>
            -8.5314685106277466e-01 6.7289721965789795e-01</leafValues></_>
        <_>
          <internalNodes>
            0 -1 43 -5.1091842353343964e-02</internalNodes>
          <leafValues>
            5.8950483798980713e-01 -8.6612355709075928e-01</leafValues></_>
        <_>
          <internalNodes>
            0 -1 2 -7.5982880592346191e-01</internalNodes>
          <leafValues>
            5.6737095117568970e-01 -9.3765854835510254e-01</leafValues></_></weakClassifiers></_>
    <!-- stage 4 -->
    <_>
      <maxWeakCount>4</maxWeakCount>
      <stageThreshold>-1.5932501554489136e+00</stageThreshold>
      <weakClassifiers>
        <_>
          <internalNodes>
            0 -1 14 -1.8974632024765015e-01</internalNodes>
          <leafValues>
            6.4545452594757080e-01 -8.6428570747375488e-01</leafValues></_>
        <_>
          <internalNodes>
            0 -1 53 2.0800918340682983e-02</internalNodes>
          <leafValues>
            -7.3221015930175781e-01 7.1048486232757568e-01</leafValues></_>
        <_>
          <internalNodes>
            0 -1 36 -8.4752917289733887e-02</internalNodes>
          <leafValues>
            7.8914242982864380e-01 -5.8470714092254639e-01</leafValues></_>
        <_>
          <internalNodes>
            0 -1 41 -5.1534108817577362e-02</internalNodes>
          <leafValues>
            6.3132792711257935e-01 -7.8589671850204468e-01</leafValues></_></weakClassifiers></_>
    <!-- stage 5 -->
    <_>
      <maxWeakCount>4</maxWeakCount>
      <stageThreshold>-7.0296716690063477e-01</stageThreshold>
      <weakClassifiers>
        <_>
          <internalNodes>
            0 -1 22 -4.8093590885400772e-03</internalNodes>
          <leafValues>
            5.9259259700775146e-01 -8.0281692743301392e-01</leafValues></_>
        <_>
          <internalNodes>
            0 -1 40 -5.0887338817119598e-02</internalNodes>
          <leafValues>
            4.8125776648521423e-01 -8.3655560016632080e-01</leafValues></_>
        <_>
          <internalNodes>
            0 -1 28 1.0771231725811958e-02</internalNodes>
          <leafValues>
            -9.4782674312591553e-01 4.7595575451850891e-01</leafValues></_>
        <_>
          <internalNodes>
            0 -1 48 2.1428488194942474e-02</internalNodes>
          <leafValues>
            -7.2496330738067627e-01 5.6641876697540283e-01</leafValues></_></weakClassifiers></_>
    <!-- stage 6 -->
    <_>
      <maxWeakCount>4</maxWeakCount>
      <stageThreshold>-9.6064734458923340e-01</stageThreshold>
      <weakClassifiers>
        <_>
          <internalNodes>
            0 -1 4 -8.5415273904800415e-02</internalNodes>
          <leafValues>
            6.6666668653488159e-01 -7.9729729890823364e-01</leafValues></_>
        <_>
          <internalNodes>
            0 -1 5 -9.6531935036182404e-02</internalNodes>
          <leafValues>
            5.3141403198242188e-01 -9.5466822385787964e-01</leafValues></_>
        <_>
          <internalNodes>
            0 -1 47 -8.1227626651525497e-03</internalNodes>
          <leafValues>
            4.9098783731460571e-01 -7.8325247764587402e-01</leafValues></_>
        <_>
          <internalNodes>
            0 -1 58 2.9374996665865183e-03</internalNodes>
          <leafValues>
            -9.6308648586273193e-01 3.0033037066459656e-01</leafValues></_></weakClassifiers></_>
    <!-- stage 7 -->
    <_>
      <maxWeakCount>5</maxWeakCount>
      <stageThreshold>-9.9064928293228149e-01</stageThreshold>
      <weakClassifiers>
        <_>
          <internalNodes>
            0 -1 55 -5.1443479955196381e-02</internalNodes>
          <leafValues>
            8.6394560337066650e-01 -6.4305949211120605e-01</leafValues></_>
        <_>
          <internalNodes>
            0 -1 31 -1.5782739967107773e-02</internalNodes>
          <leafValues>
            5.8385097980499268e-01 -7.6879531145095825e-01</leafValues></_>
        <_>
          <internalNodes>
            0 -1 27 -9.2938421294093132e-03</internalNodes>
          <leafValues>
            5.7026022672653198e-01 -6.8742126226425171e-01</leafValues></_>
        <_>
          <internalNodes>
            0 -1 17 -7.4173527956008911e-01</internalNodes>
          <leafValues>
            3.9014351367950439e-01 -9.0801966190338135e-01</leafValues></_>
        <_>
          <internalNodes>
            0 -1 3 -3.1486570835113525e-02</internalNodes>
          <leafValues>
            7.3184788227081299e-01 -5.3919827938079834e-01</leafValues></_></weakClassifiers></_>
    <!-- stage 8 -->
    <_>
      <maxWeakCount>5</maxWeakCount>
      <stageThreshold>-9.5074182748794556e-01</stageThreshold>
      <weakClassifiers>
        <_>
          <internalNodes>
            0 -1 59 -3.5925604403018951e-02</internalNodes>
          <leafValues>
            6.0000002384185791e-01 -6.9032257795333862e-01</leafValues></_>
        <_>
          <internalNodes>
            0 -1 15 -6.1018344014883041e-02</internalNodes>
          <leafValues>
            6.5777808427810669e-01 -6.2208342552185059e-01</leafValues></_>
        <_>
          <internalNodes>
            0 -1 62 6.1436679970938712e-05</internalNodes>
          <leafValues>
            -7.6356416940689087e-01 4.6613284945487976e-01</leafValues></_>
        <_>
          <internalNodes>
            0 -1 37 -1.1987581849098206e-01</internalNodes>
          <leafValues>
            8.1552559137344360e-01 -4.9106246232986450e-01</leafValues></_>
        <_>
          <internalNodes>
            0 -1 39 -2.1755414491053671e-04</internalNodes>
          <leafValues>
            3.8659378886222839e-01 -9.6622806787490845e-01</leafValues></_></weakClassifiers></_>
    <!-- stage 9 -->
    <_>
      <maxWeakCount>5</maxWeakCount>
      <stageThreshold>-1.3720242977142334e+00</stageThreshold>
      <weakClassifiers>
        <_>
          <internalNodes>
            0 -1 57 5.1952097564935684e-03</internalNodes>
          <leafValues>
            -7.0764118432998657e-01 5.6783920526504517e-01</leafValues></_>
        <_>
          <internalNodes>
            0 -1 25 -8.6858004331588745e-02</internalNodes>
          <leafValues>
            5.9659922122955322e-01 -5.8112913370132446e-01</leafValues></_>
        <_>
          <internalNodes>
            0 -1 56 1.1297513265162706e-04</internalNodes>
          <leafValues>
            -6.9277256727218628e-01 5.1686453819274902e-01</leafValues></_>
        <_>
          <internalNodes>
            0 -1 7 -4.1739759035408497e-03</internalNodes>
          <leafValues>
            -9.1986960172653198e-01 3.1509393453598022e-01</leafValues></_>
        <_>
          <internalNodes>
            0 -1 8 -2.7286920696496964e-02</internalNodes>
          <leafValues>
            3.1975108385086060e-01 -9.8079723119735718e-01</leafValues></_></weakClassifiers></_>
    <!-- stage 10 -->
    <_>
      <maxWeakCount>3</maxWeakCount>
      <stageThreshold>-1.0151082277297974e+00</stageThreshold>
      <weakClassifiers>
        <_>
          <internalNodes>
            0 -1 45 -6.0691842809319496e-03</internalNodes>
          <leafValues>
            6.8253970146179199e-01 -7.3633438348770142e-01</leafValues></_>
        <_>
          <internalNodes>
            0 -1 6 -7.3154177516698837e-04</internalNodes>
          <leafValues>
            4.6514451503753662e-01 -8.8780015707015991e-01</leafValues></_>
        <_>
          <internalNodes>
            0 -1 30 1.2148141860961914e-02</internalNodes>
          <leafValues>
            -6.3575404882431030e-01 6.0902631282806396e-01</leafValues></_></weakClassifiers></_>
    <!-- stage 11 -->
    <_>
      <maxWeakCount>5</maxWeakCount>
      <stageThreshold>-1.2169017791748047e+00</stageThreshold>
      <weakClassifiers>
        <_>
          <internalNodes>
            0 -1 34 6.0622328892350197e-03</internalNodes>
          <leafValues>
            -8.3908045291900635e-01 4.9790793657302856e-01</leafValues></_>
        <_>
          <internalNodes>
            0 -1 35 -1.5490943193435669e-01</internalNodes>
          <leafValues>
            4.2849251627922058e-01 -8.0414760112762451e-01</leafValues></_>
        <_>
          <internalNodes>
            0 -1 21 -1.6340772807598114e-01</internalNodes>
          <leafValues>
            4.7642883658409119e-01 -6.3527160882949829e-01</leafValues></_>
        <_>
          <internalNodes>
            0 -1 24 -2.4375934153795242e-03</internalNodes>
          <leafValues>
            4.3100559711456299e-01 -8.0356693267822266e-01</leafValues></_>
        <_>
          <internalNodes>
            0 -1 38 -1.2897143606096506e-03</internalNodes>
          <leafValues>
            6.3252472877502441e-01 -5.3441029787063599e-01</leafValues></_></weakClassifiers></_>
    <!-- stage 12 -->
    <_>
      <maxWeakCount>5</maxWeakCount>
      <stageThreshold>-9.5486211776733398e-01</stageThreshold>
      <weakClassifiers>
        <_>
          <internalNodes>
            0 -1 9 -2.7838397026062012e-01</internalNodes>
          <leafValues>
            4.8497852683067322e-01 -7.9775279760360718e-01</leafValues></_>
        <_>
          <internalNodes>
            0 -1 44 -1.9125648541375995e-03</internalNodes>
          <leafValues>
            6.9058722257614136e-01 -6.0674893856048584e-01</leafValues></_>
        <_>
          <internalNodes>
            0 -1 33 -7.9946301411837339e-04</internalNodes>
          <leafValues>
            5.1053667068481445e-01 -7.4521213769912720e-01</leafValues></_>
        <_>
          <internalNodes>
            0 -1 20 -1.9039190374314785e-03</internalNodes>
          <leafValues>
            -8.8553845882415771e-01 4.4049847126007080e-01</leafValues></_>
        <_>
          <internalNodes>
            0 -1 13 8.4485067054629326e-03</internalNodes>
          <leafValues>
            -4.7269466519355774e-01 8.3299320936203003e-01</leafValues></_></weakClassifiers></_>
    <!-- stage 13 -->
    <_>
      <maxWeakCount>4</maxWeakCount>
      <stageThreshold>-1.1120843887329102e+00</stageThreshold>
      <weakClassifiers>
        <_>
          <internalNodes>
            0 -1 29 1.1766391806304455e-02</internalNodes>
          <leafValues>
            -8.7878787517547607e-01 3.8289964199066162e-01</leafValues></_>
        <_>
          <internalNodes>
            0 -1 11 1.2714213225990534e-03</internalNodes>
          <leafValues>
            -9.2901909351348877e-01 3.6512911319732666e-01</leafValues></_>
        <_>
          <internalNodes>
            0 -1 50 -4.9682013923302293e-05</internalNodes>
          <leafValues>
            3.7058454751968384e-01 -7.9848873615264893e-01</leafValues></_>
        <_>
          <internalNodes>
            0 -1 1 -6.2437698245048523e-02</internalNodes>
          <leafValues>
            3.2513806223869324e-01 -9.6151584386825562e-01</leafValues></_></weakClassifiers></_>
    <!-- stage 14 -->
    <_>
      <maxWeakCount>4</maxWeakCount>
      <stageThreshold>-6.4153182506561279e-01</stageThreshold>
      <weakClassifiers>
        <_>
          <internalNodes>
            0 -1 26 -1.1106978636234999e-03</internalNodes>
          <leafValues>
            5.9433960914611816e-01 -7.8472220897674561e-01</leafValues></_>
        <_>
          <internalNodes>
            0 -1 49 -2.2087359684519470e-04</internalNodes>
          <leafValues>
            5.3136444091796875e-01 -7.2731870412826538e-01</leafValues></_>
        <_>
          <internalNodes>
            0 -1 63 -6.4714673499111086e-05</internalNodes>
          <leafValues>
            5.0121837854385376e-01 -7.5328779220581055e-01</leafValues></_>
        <_>
          <internalNodes>
            0 -1 54 -3.0758408829569817e-03</internalNodes>
          <leafValues>
            -8.8939243555068970e-01 4.3725663423538208e-01</leafValues></_></weakClassifiers></_>
    <!-- stage 15 -->
    <_>
      <maxWeakCount>5</maxWeakCount>
      <stageThreshold>-1.0326902866363525e+00</stageThreshold>
      <weakClassifiers>
        <_>
          <internalNodes>
            0 -1 60 -2.5738714612089097e-04</internalNodes>
          <leafValues>
            -7.1601206064224243e-01 8.1065088510513306e-01</leafValues></_>
        <_>
          <internalNodes>
            0 -1 12 8.1191388890147209e-03</internalNodes>
          <leafValues>
            -8.9379137754440308e-01 5.8096140623092651e-01</leafValues></_>
        <_>
          <internalNodes>
            0 -1 23 -8.9989497791975737e-04</internalNodes>
          <leafValues>
            4.8653274774551392e-01 -9.2644590139389038e-01</leafValues></_>
        <_>
          <internalNodes>
            0 -1 42 3.9534129202365875e-02</internalNodes>
          <leafValues>
            -6.5935415029525757e-01 7.7819341421127319e-01</leafValues></_>
        <_>
          <internalNodes>
            0 -1 51 1.9217628869228065e-04</internalNodes>
          <leafValues>
            -6.5339386463165283e-01 7.4993467330932617e-01</leafValues></_></weakClassifiers></_></stages>
  <features>
    <_>
      <rects>
        <_>
          0 0 9 13 -1.</_>
        <_>
          3 0 3 13 3.</_></rects>
      <tilted>0</tilted></_>
    <_>
      <rects>
        <_>
          0 0 20 9 -1.</_>
        <_>
          5 0 10 9 2.</_></rects>
      <tilted>0</tilted></_>
    <_>
      <rects>
        <_>
          0 0 18 18 -1.</_>
        <_>
          6 6 6 6 9.</_></rects>
      <tilted>0</tilted></_>
    <_>
      <rects>
        <_>
          0 1 6 16 -1.</_>
        <_>
          2 1 2 16 3.</_></rects>
      <tilted>0</tilted></_>
    <_>
      <rects>
        <_>
          0 1 9 14 -1.</_>
        <_>
          3 1 3 14 3.</_></rects>
      <tilted>0</tilted></_>
    <_>
      <rects>
        <_>
          0 1 13 12 -1.</_>
        <_>
          0 5 13 4 3.</_></rects>
      <tilted>0</tilted></_>
    <_>
      <rects>
        <_>
          0 5 6 4 -1.</_>
        <_>
          0 6 6 2 2.</_></rects>
      <tilted>0</tilted></_>
    <_>
      <rects>
        <_>
          0 7 14 4 -1.</_>
        <_>
          0 9 14 2 2.</_></rects>
      <tilted>0</tilted></_>
    <_>
      <rects>
        <_>
          0 7 15 9 -1.</_>
        <_>
          0 10 15 3 3.</_></rects>
      <tilted>0</tilted></_>
    <_>
      <rects>
        <_>
          0 9 20 8 -1.</_>
        <_>
          5 9 10 8 2.</_></rects>
      <tilted>0</tilted></_>
    <_>
      <rects>
        <_>
          0 10 20 5 -1.</_>
        <_>
          5 10 10 5 2.</_></rects>
      <tilted>0</tilted></_>
    <_>
      <rects>
        <_>
          0 10 10 2 -1.</_>
        <_>
          0 11 10 1 2.</_></rects>
      <tilted>0</tilted></_>
    <_>
      <rects>
        <_>
          0 15 17 2 -1.</_>
        <_>
          0 16 17 1 2.</_></rects>
      <tilted>0</tilted></_>
    <_>
      <rects>
        <_>
          0 17 16 2 -1.</_>
        <_>
          0 17 8 1 2.</_>
        <_>
          8 18 8 1 2.</_></rects>
      <tilted>0</tilted></_>
    <_>
      <rects>
        <_>
          1 0 18 12 -1.</_>
        <_>
          1 3 18 6 2.</_></rects>
      <tilted>0</tilted></_>
    <_>
      <rects>
        <_>
          1 1 17 6 -1.</_>
        <_>
          1 3 17 2 3.</_></rects>
      <tilted>0</tilted></_>
    <_>
      <rects>
        <_>
          1 16 10 2 -1.</_>
        <_>
          1 16 5 1 2.</_>
        <_>
          6 17 5 1 2.</_></rects>
      <tilted>0</tilted></_>
    <_>
      <rects>
        <_>
          2 0 18 18 -1.</_>
        <_>
          8 6 6 6 9.</_></rects>
      <tilted>0</tilted></_>
    <_>
      <rects>
        <_>
          2 0 15 9 -1.</_>
        <_>
          2 3 15 3 3.</_></rects>
      <tilted>0</tilted></_>
    <_>
      <rects>
        <_>
          2 0 17 18 -1.</_>
        <_>
          2 6 17 6 3.</_></rects>
      <tilted>0</tilted></_>
    <_>
      <rects>
        <_>
          2 6 9 2 -1.</_>
        <_>
          2 7 9 1 2.</_></rects>
      <tilted>0</tilted></_>
    <_>
      <rects>
        <_>
          2 11 16 8 -1.</_>
        <_>
          6 11 8 8 2.</_></rects>
      <tilted>0</tilted></_>
    <_>
      <rects>
        <_>
          2 12 10 2 -1.</_>
        <_>
          2 12 5 1 2.</_>
        <_>
          7 13 5 1 2.</_></rects>
      <tilted>0</tilted></_>
    <_>
      <rects>
        <_>
          3 0 3 15 -1.</_>
        <_>
          4 0 1 15 3.</_></rects>
      <tilted>0</tilted></_>
    <_>
      <rects>
        <_>
          3 0 8 3 -1.</_>
        <_>
          2 1 8 1 3.</_></rects>
      <tilted>1</tilted></_>
    <_>
      <rects>
        <_>
          3 0 16 8 -1.</_>
        <_>
          3 2 16 4 2.</_></rects>
      <tilted>0</tilted></_>
    <_>
      <rects>
        <_>
          3 1 3 4 -1.</_>
        <_>
          4 1 1 4 3.</_></rects>
      <tilted>0</tilted></_>
    <_>
      <rects>
        <_>
          3 1 6 5 -1.</_>
        <_>
          5 1 2 5 3.</_></rects>
      <tilted>0</tilted></_>
    <_>
      <rects>
        <_>
          3 14 14 2 -1.</_>
        <_>
          3 15 14 1 2.</_></rects>
      <tilted>0</tilted></_>
    <_>
      <rects>
        <_>
          3 15 12 2 -1.</_>
        <_>
          3 16 12 1 2.</_></rects>
      <tilted>0</tilted></_>
    <_>
      <rects>
        <_>
          3 16 14 2 -1.</_>
        <_>
          3 17 14 1 2.</_></rects>
      <tilted>0</tilted></_>
    <_>
      <rects>
        <_>
          4 1 4 18 -1.</_>
        <_>
          4 1 2 9 2.</_>
        <_>
          6 10 2 9 2.</_></rects>
      <tilted>0</tilted></_>
    <_>
      <rects>
        <_>
          4 15 11 2 -1.</_>
        <_>
          4 16 11 1 2.</_></rects>
      <tilted>0</tilted></_>
    <_>
      <rects>
        <_>
          5 0 3 6 -1.</_>
        <_>
          6 0 1 6 3.</_></rects>
      <tilted>0</tilted></_>
    <_>
      <rects>
        <_>
          6 0 8 13 -1.</_>
        <_>
          8 0 4 13 2.</_></rects>
      <tilted>0</tilted></_>
    <_>
      <rects>
        <_>
          6 0 14 12 -1.</_>
        <_>
          6 4 14 4 3.</_></rects>
      <tilted>0</tilted></_>
    <_>
      <rects>
        <_>
          6 6 7 6 -1.</_>
        <_>
          4 8 7 2 3.</_></rects>
      <tilted>1</tilted></_>
    <_>
      <rects>
        <_>
          6 6 8 6 -1.</_>
        <_>
          4 8 8 2 3.</_></rects>
      <tilted>1</tilted></_>
    <_>
      <rects>
        <_>
          7 1 3 4 -1.</_>
        <_>
          8 1 1 4 3.</_></rects>
      <tilted>0</tilted></_>
    <_>
      <rects>
        <_>
          7 5 7 2 -1.</_>
        <_>
          7 6 7 1 2.</_></rects>
      <tilted>0</tilted></_>
    <_>
      <rects>
        <_>
          9 0 7 9 -1.</_>
        <_>
          9 3 7 3 3.</_></rects>
      <tilted>0</tilted></_>
    <_>
      <rects>
        <_>
          9 0 11 9 -1.</_>
        <_>
          9 3 11 3 3.</_></rects>
      <tilted>0</tilted></_>
    <_>
      <rects>
        <_>
          10 0 10 14 -1.</_>
        <_>
          10 0 5 7 2.</_>
        <_>
          15 7 5 7 2.</_></rects>
      <tilted>0</tilted></_>
    <_>
      <rects>
        <_>
          10 0 8 9 -1.</_>
        <_>
          10 3 8 3 3.</_></rects>
      <tilted>0</tilted></_>
    <_>
      <rects>
        <_>
          10 1 4 4 -1.</_>
        <_>
          11 1 2 4 2.</_></rects>
      <tilted>0</tilted></_>
    <_>
      <rects>
        <_>
          10 1 4 3 -1.</_>
        <_>
          12 1 2 3 2.</_></rects>
      <tilted>0</tilted></_>
    <_>
      <rects>
        <_>
          10 6 6 12 -1.</_>
        <_>
          10 6 3 6 2.</_>
        <_>
          13 12 3 6 2.</_></rects>
      <tilted>0</tilted></_>
    <_>
      <rects>
        <_>
          11 0 6 5 -1.</_>
        <_>
          13 0 2 5 3.</_></rects>
      <tilted>0</tilted></_>
    <_>
      <rects>
        <_>
          11 2 4 16 -1.</_>
        <_>
          11 2 2 8 2.</_>
        <_>
          13 10 2 8 2.</_></rects>
      <tilted>0</tilted></_>
    <_>
      <rects>
        <_>
          12 4 4 2 -1.</_>
        <_>
          14 4 2 2 2.</_></rects>
      <tilted>0</tilted></_>
    <_>
      <rects>
        <_>
          12 6 4 2 -1.</_>
        <_>
          14 6 2 2 2.</_></rects>
      <tilted>0</tilted></_>
    <_>
      <rects>
        <_>
          12 9 1 4 -1.</_>
        <_>
          12 9 1 2 2.</_></rects>
      <tilted>1</tilted></_>
    <_>
      <rects>
        <_>
          13 0 4 5 -1.</_>
        <_>
          14 0 2 5 2.</_></rects>
      <tilted>0</tilted></_>
    <_>
      <rects>
        <_>
          13 4 4 14 -1.</_>
        <_>
          13 4 2 7 2.</_>
        <_>
          15 11 2 7 2.</_></rects>
      <tilted>0</tilted></_>
    <_>
      <rects>
        <_>
          13 10 5 4 -1.</_>
        <_>
          12 11 5 2 2.</_></rects>
      <tilted>1</tilted></_>
    <_>
      <rects>
        <_>
          14 3 6 9 -1.</_>
        <_>
          16 3 2 9 3.</_></rects>
      <tilted>0</tilted></_>
    <_>
      <rects>
        <_>
          14 7 2 5 -1.</_>
        <_>
          14 7 1 5 2.</_></rects>
      <tilted>1</tilted></_>
    <_>
      <rects>
        <_>
          15 7 2 8 -1.</_>
        <_>
          15 7 1 4 2.</_>
        <_>
          16 11 1 4 2.</_></rects>
      <tilted>0</tilted></_>
    <_>
      <rects>
        <_>
          15 8 5 4 -1.</_>
        <_>
          15 10 5 2 2.</_></rects>
      <tilted>0</tilted></_>
    <_>
      <rects>
        <_>
          16 7 4 12 -1.</_>
        <_>
          16 7 2 6 2.</_>
        <_>
          18 13 2 6 2.</_></rects>
      <tilted>0</tilted></_>
    <_>
      <rects>
        <_>
          16 8 2 3 -1.</_>
        <_>
          16 8 1 3 2.</_></rects>
      <tilted>1</tilted></_>
    <_>
      <rects>
        <_>
          18 1 2 16 -1.</_>
        <_>
          14 5 2 8 2.</_></rects>
      <tilted>1</tilted></_>
    <_>
      <rects>
        <_>
          18 17 2 1 -1.</_>
        <_>
          18 17 1 1 2.</_></rects>
      <tilted>1</tilted></_>
    <_>
      <rects>
        <_>
          18 18 2 2 -1.</_>
        <_>
          18 19 2 1 2.</_></rects>
      <tilted>0</tilted></_></features></cascade>
</opencv_storage>
